{"parameters/encoder.conv2.bias":{"bins":[-0.07811814546585083,-0.07574274390935898,-0.07336734235286713,-0.07099194079637527,-0.06861653923988342,-0.06624113768339157,-0.06386573612689972,-0.06149033457040787,-0.059114933013916016,-0.056739527732133865,-0.054364126175642014,-0.05198872461915016,-0.04961332306265831,-0.04723792150616646,-0.044862519949674606,-0.042487118393182755,-0.0401117168366909,-0.03773631528019905,-0.0353609137237072,-0.03298551216721535,-0.030610110610723495,-0.028234707191586494,-0.025859305635094643,-0.02348390407860279,-0.02110850252211094,-0.018733100965619087,-0.016357699409127235,-0.013982296921312809,-0.011606895364820957,-0.009231493808329105,-0.006856091786175966,-0.004480689764022827,-0.0021052882075309753,0.0002701135817915201,0.0026455153711140156,0.005020917393267155,0.0073963189497590065,0.009771720506250858,0.012147122994065285,0.014522524550557137,0.01689792610704899,0.01927332766354084,0.021648729220032692,0.024024130776524544,0.026399534195661545,0.028774935752153397,0.03115033730864525,0.0335257388651371,0.03590114042162895,0.038276541978120804,0.040651943534612656,0.04302734509110451,0.04540274664759636,0.04777814820408821,0.05015354976058006,0.052528951317071915,0.054904356598854065,0.05727975815534592,0.05965515971183777,0.06203056126832962,0.06440596282482147,0.06678136438131332,0.06915676593780518,0.07153216749429703,0.07390756905078888],"_type":"histogram","values":[1,0,1,0,0,0,0,0,2,2,0,1,6,0,2,0,0,0,3,2,1,0,1,1,1,2,0,1,4,0,1,0,3,2,1,0,2,1,0,1,3,3,3,2,1,3,1,0,1,1,0,0,0,1,0,1,1,0,0,0,0,0,0,1]},"parameters/encoder.fc.weight":{"bins":[-0.3481670022010803,-0.33778050541877747,-0.3273939788341522,-0.31700748205184937,-0.3066209554672241,-0.29623445868492126,-0.285847932100296,-0.27546143531799316,-0.2650749087333679,-0.25468841195106506,-0.244301900267601,-0.23391538858413696,-0.2235288769006729,-0.21314236521720886,-0.2027558535337448,-0.19236934185028076,-0.1819828301668167,-0.17159631848335266,-0.1612098067998886,-0.15082329511642456,-0.1404367834329605,-0.13005027174949646,-0.119663767516613,-0.10927725583314896,-0.0988907441496849,-0.08850423246622086,-0.0781177207827568,-0.06773120909929276,-0.057344701141119,-0.04695818945765495,-0.0365716814994812,-0.02618516981601715,-0.0157986581325531,-0.005412147380411625,0.004974363371729851,0.015360874123871326,0.025747384876012802,0.03613389655947685,0.046520404517650604,0.056906916201114655,0.0672934278845787,0.07767993956804276,0.0880664512515068,0.09845296293497086,0.10883946716785431,0.11922597885131836,0.1296124905347824,0.13999900221824646,0.1503855139017105,0.16077202558517456,0.1711585372686386,0.18154504895210266,0.1919315606355667,0.20231807231903076,0.2127045840024948,0.22309109568595886,0.23347759246826172,0.24386410415172577,0.2542506158351898,0.26463714241981506,0.2750236392021179,0.28541016578674316,0.295796662569046,0.30618318915367126,0.3165696859359741],"_type":"histogram","values":[2,0,0,0,0,1,2,0,0,0,1,2,2,2,8,6,8,12,23,33,47,56,102,161,275,433,623,1116,2142,3964,7826,24490,66868,85481,65490,21988,6585,3297,1659,893,477,281,183,114,86,62,27,22,15,13,12,8,6,3,1,1,2,0,0,0,0,0,0,1]},"_wandb":{"runtime":153},"parameters/flows.3.w":{"bins":[-1.8926692008972168,-1.8340976238250732,-1.7755260467529297,-1.7169544696807861,-1.6583828926086426,-1.599811315536499,-1.5412397384643555,-1.482668161392212,-1.4240965843200684,-1.3655251264572144,-1.3069535493850708,-1.2483819723129272,-1.1898103952407837,-1.1312388181686401,-1.0726672410964966,-1.014095664024353,-0.9555240869522095,-0.8969525098800659,-0.8383809328079224,-0.7798093557357788,-0.7212377786636353,-0.6626662611961365,-0.6040946841239929,-0.5455231070518494,-0.4869515299797058,-0.42837995290756226,-0.3698083758354187,-0.31123682856559753,-0.252665251493454,-0.19409367442131042,-0.13552211225032806,-0.0769505426287651,-0.0183790922164917,0.04019247740507126,0.09876404702663422,0.15733560919761658,0.21590718626976013,0.2744787633419037,0.33305031061172485,0.3916218876838684,0.45019346475601196,0.5087650418281555,0.5673366189002991,0.6259081959724426,0.6844797134399414,0.743051290512085,0.8016228675842285,0.8601944446563721,0.9187660217285156,0.9773375988006592,1.0359091758728027,1.0944807529449463,1.1530523300170898,1.2116239070892334,1.270195484161377,1.3287670612335205,1.387338638305664,1.445910096168518,1.5044816732406616,1.5630532503128052,1.6216248273849487,1.6801964044570923,1.7387679815292358,1.7973395586013794,1.855911135673523],"_type":"histogram","values":[2,0,0,0,0,1,0,0,0,0,1,0,1,0,0,0,0,0,2,0,2,0,0,1,0,0,1,1,2,1,2,0,1,3,1,1,1,0,1,0,0,2,0,0,1,0,0,1,0,0,0,0,0,1,0,0,0,0,0,0,0,1,0,1]},"parameters/flows.2.w":{"_type":"histogram","values":[1,1,0,0,0,0,0,0,0,0,0,0,0,1,1,0,0,1,0,1,0,0,2,1,2,0,3,0,0,1,1,0,0,1,1,0,1,1,1,0,0,0,0,2,1,1,1,2,0,1,0,1,0,0,0,0,0,0,0,1,0,0,0,1],"bins":[-2.1347055435180664,-2.0786499977111816,-2.022594451904297,-1.966538906097412,-1.9104833602905273,-1.8544278144836426,-1.7983722686767578,-1.742316722869873,-1.6862611770629883,-1.6302056312561035,-1.5741500854492188,-1.518094539642334,-1.4620389938354492,-1.4059834480285645,-1.3499279022216797,-1.293872356414795,-1.2378168106079102,-1.1817612648010254,-1.1257057189941406,-1.0696501731872559,-1.013594627380371,-0.9575390815734863,-0.9014835357666016,-0.8454279899597168,-0.789372444152832,-0.7333168983459473,-0.6772613525390625,-0.6212058067321777,-0.565150260925293,-0.5090947151184082,-0.45303916931152344,-0.39698362350463867,-0.3409280776977539,-0.28487253189086914,-0.22881698608398438,-0.1727614402770996,-0.11670589447021484,-0.06065034866333008,-0.0045948028564453125,0.05146074295043945,0.10751628875732422,0.16357183456420898,0.21962738037109375,0.2756829261779785,0.3317384719848633,0.38779401779174805,0.4438495635986328,0.4999051094055176,0.5559606552124023,0.6120162010192871,0.6680717468261719,0.7241272926330566,0.7801828384399414,0.8362383842468262,0.8922939300537109,0.9483494758605957,1.0044050216674805,1.0604605674743652,1.11651611328125,1.1725716590881348,1.2286272048950195,1.2846827507019043,1.340738296508789,1.3967938423156738,1.4528493881225586]},"parameters/decoder.deconv5.weight":{"values":[2,3,3,2,2,7,4,6,16,22,26,32,31,30,30,30,39,42,48,51,42,47,33,35,34,47,61,42,46,41,43,48,55,45,58,40,39,41,50,36,30,27,19,29,19,20,14,8,9,9,9,4,4,3,4,4,7,1,3,0,1,1,0,2],"bins":[-0.20194227993488312,-0.19488883018493652,-0.18783538043498993,-0.18078193068504333,-0.17372848093509674,-0.16667503118515015,-0.15962158143520355,-0.15256813168525696,-0.14551468193531036,-0.13846123218536377,-0.13140778243541718,-0.12435433268547058,-0.11730088293552399,-0.11024743318557739,-0.1031939834356308,-0.0961405336856842,-0.08908708393573761,-0.08203363418579102,-0.07498018443584442,-0.06792673468589783,-0.06087328493595123,-0.05381983518600464,-0.046766385436058044,-0.03971293568611145,-0.032659485936164856,-0.02560603618621826,-0.018552586436271667,-0.011499136686325073,-0.004445686936378479,0.0026077628135681152,0.00966121256351471,0.016714662313461304,0.023768112063407898,0.030821561813354492,0.037875011563301086,0.04492846131324768,0.051981911063194275,0.05903536081314087,0.06608881056308746,0.07314226031303406,0.08019571006298065,0.08724915981292725,0.09430260956287384,0.10135605931282043,0.10840950906276703,0.11546295881271362,0.12251640856266022,0.1295698583126068,0.1366233080625534,0.1436767578125,0.1507302075624466,0.1577836573123932,0.16483710706233978,0.17189055681228638,0.17894400656223297,0.18599745631217957,0.19305090606212616,0.20010435581207275,0.20715780556201935,0.21421125531196594,0.22126470506191254,0.22831815481185913,0.23537160456180573,0.24242505431175232,0.2494785040616989],"_type":"histogram"},"_step":5,"parameters/flows.2.b":{"values":[1],"bins":[-1.1216179132461548,-1.1216179132461548],"_type":"histogram"},"parameters/encoder.conv1.bias":{"bins":[-0.1540718674659729,-0.14943110942840576,-0.14479033648967743,-0.1401495784521103,-0.13550882041454315,-0.130868062376976,-0.12622728943824768,-0.12158653140068054,-0.1169457733631134,-0.11230500787496567,-0.10766424238681793,-0.1030234843492508,-0.09838271886110306,-0.09374196082353592,-0.08910119533538818,-0.08446043729782104,-0.07981967180967331,-0.07517890632152557,-0.07053814828395844,-0.0658973827958107,-0.06125662475824356,-0.056615859270095825,-0.05197509750723839,-0.04733433574438095,-0.042693573981523514,-0.03805281221866608,-0.03341205045580864,-0.028771286830306053,-0.024130525067448616,-0.01948976330459118,-0.014849000610411167,-0.010208237916231155,-0.005567476153373718,-0.0009267139248549938,0.0037140483036637306,0.008354810997843742,0.01299557276070118,0.017636334523558617,0.022277098149061203,0.02691785991191864,0.03155862167477608,0.036199383437633514,0.04084014520049095,0.04548090696334839,0.050121672451496124,0.05476243421435356,0.059403195977211,0.06404395401477814,0.06868471950292587,0.07332548499107361,0.07796624302864075,0.08260700851678848,0.08724776655435562,0.09188853204250336,0.0965292900800705,0.10117005556821823,0.10581082105636597,0.1104515790939331,0.11509234458208084,0.11973310261964798,0.12437386810779572,0.12901462614536285,0.13365538418293,0.13829615712165833,0.14293691515922546],"_type":"histogram","values":[1,0,1,0,1,0,1,0,1,0,3,0,1,0,0,0,0,1,0,0,0,0,2,1,1,0,0,0,0,1,0,0,0,0,2,0,2,0,0,0,1,0,0,0,1,0,2,2,0,0,0,1,0,1,0,0,0,1,1,1,1,0,0,1]},"parameters/flows.3.b":{"bins":[-0.07642962038516998,-0.07642962038516998],"_type":"histogram","values":[1]},"parameters/encoder.conv4.bias":{"_type":"histogram","values":[1,1,0,0,0,0,2,1,0,4,0,3,2,5,5,14,5,7,7,11,12,8,11,10,15,3,9,9,9,12,8,10,10,6,10,8,7,3,7,0,2,1,4,2,0,2,1,0,1,0,1,1,1,1,0,0,0,0,1,1,0,0,1,1],"bins":[-0.11524876952171326,-0.11123540997505188,-0.1072220429778099,-0.10320868343114853,-0.09919532388448715,-0.09518195688724518,-0.0911685973405838,-0.08715523779392242,-0.08314187824726105,-0.07912851125001907,-0.0751151517033577,-0.07110179215669632,-0.06708842515945435,-0.06307506561279297,-0.05906170234084129,-0.055048342794179916,-0.05103497952222824,-0.047021616250276566,-0.04300825670361519,-0.03899489343166351,-0.034981533885002136,-0.03096817061305046,-0.026954807341098785,-0.02294144593179226,-0.018928084522485733,-0.014914723113179207,-0.010901360772550106,-0.0068879988975822926,-0.002874637022614479,0.0011387248523533344,0.005152086727321148,0.009165449067950249,0.013178810477256775,0.0171921718865633,0.021205533295869827,0.025218896567821503,0.02923225797712803,0.033245619386434555,0.03725898265838623,0.04127234220504761,0.04528570547699928,0.04929906874895096,0.053312428295612335,0.05732579156756401,0.061339154839515686,0.06535251438617706,0.06936587393283844,0.07337924093008041,0.07739260047674179,0.08140596002340317,0.08541932702064514,0.08943268656730652,0.0934460461139679,0.09745941311120987,0.10147277265787125,0.10548613220453262,0.1094994992017746,0.11351285874843597,0.11752621829509735,0.12153957784175873,0.1255529373884201,0.12956631183624268,0.13357967138290405,0.13759303092956543,0.1416063904762268]},"parameters/flows.0.b":{"values":[1],"bins":[0.636985719203949,0.636985719203949],"_type":"histogram"},"parameters/decoder.deconv5.bias":{"_type":"histogram","values":[1,0,0,0,0,0,0,0,0,0,0,0,0,0,0,0,0,0,0,0,0,0,0,0,0,0,0,0,0,0,0,0,0,0,0,0,0,0,0,0,0,0,0,0,0,0,0,0,0,0,0,0,0,1,0,0,0,0,0,0,0,0,0,1],"bins":[-0.06193555146455765,-0.05982399731874466,-0.05771243944764137,-0.055600885301828384,-0.053489331156015396,-0.05137777328491211,-0.04926621913909912,-0.04715466499328613,-0.045043110847473145,-0.04293155297636986,-0.04081999883055687,-0.03870844468474388,-0.036596886813640594,-0.034485332667827606,-0.03237377852201462,-0.03026222251355648,-0.028150666505098343,-0.026039110496640205,-0.023927556350827217,-0.02181600034236908,-0.01970444619655609,-0.017592890188097954,-0.015481334179639816,-0.013369779102504253,-0.01125822402536869,-0.009146668948233128,-0.007035113405436277,-0.004923557862639427,-0.0028120027855038643,-0.0007004474755376577,0.0014111078344285488,0.0035226631443947554,0.005634218454360962,0.007745773531496525,0.009857328608632088,0.011968884617090225,0.014080439694225788,0.01619199477136135,0.01830355077981949,0.020415104925632477,0.022526660934090614,0.024638216942548752,0.02674977108836174,0.028861327096819878,0.030972883105278015,0.033084437251091,0.03519599139690399,0.03730754926800728,0.03941910341382027,0.041530657559633255,0.04364221543073654,0.04575376957654953,0.04786532372236252,0.049976881593465805,0.05208843573927879,0.05419998988509178,0.05631154775619507,0.05842310190200806,0.060534656047821045,0.06264621019363403,0.06475776433944702,0.0668693259358406,0.0689808800816536,0.07109243422746658,0.07320398837327957]},"parameters/encoder.conv4.weight":{"bins":[-0.26138541102409363,-0.2531565725803375,-0.24492774903774261,-0.2366989105939865,-0.2284700870513916,-0.2202412486076355,-0.2120124101638794,-0.20378358662128448,-0.19555474817752838,-0.18732590973377228,-0.17909708619117737,-0.17086824774742126,-0.16263940930366516,-0.15441058576107025,-0.14618174731731415,-0.13795292377471924,-0.12972408533096313,-0.12149525433778763,-0.11326642334461212,-0.10503758490085602,-0.09680875390768051,-0.088579922914505,-0.0803510844707489,-0.0721222534775734,-0.06389342248439789,-0.05566459149122238,-0.04743575677275658,-0.03920692205429077,-0.030978091061115265,-0.02274925820529461,-0.014520425349473953,-0.006291592493653297,0.0019372403621673584,0.010166073217988014,0.01839490607380867,0.026623738929629326,0.03485257178544998,0.04308140277862549,0.05131023749709129,0.0595390722155571,0.0677679032087326,0.07599673420190811,0.08422556519508362,0.09245440363883972,0.10068323463201523,0.10891206562519073,0.11714090406894684,0.12536972761154175,0.13359856605529785,0.14182740449905396,0.15005622804164886,0.15828506648540497,0.16651389002799988,0.17474272847175598,0.18297156691551208,0.191200390458107,0.1994292289018631,0.2076580673456192,0.2158868908882141,0.22411572933197021,0.23234456777572632,0.24057339131832123,0.24880222976207733,0.25703105330467224,0.26525989174842834],"_type":"histogram","values":[1,0,0,0,0,0,0,1,1,0,1,2,2,9,12,10,15,38,43,70,133,255,451,934,1904,4694,8523,10823,11360,11669,11934,11994,12052,11440,11076,9655,6278,2895,1276,632,352,197,112,57,63,30,23,11,13,9,7,1,3,2,4,2,0,2,0,0,0,0,0,1]},"parameters/decoder.deconv1.weight":{"bins":[-0.21450981497764587,-0.20762908458709717,-0.20074836909770966,-0.19386763870716095,-0.18698692321777344,-0.18010619282722473,-0.17322547733783722,-0.1663447469472885,-0.159464031457901,-0.1525833010673523,-0.1457025706768036,-0.13882185518741608,-0.13194112479686737,-0.12506040930747986,-0.11817967891693115,-0.11129895597696304,-0.10441823303699493,-0.09753751009702682,-0.09065678715705872,-0.0837760642170906,-0.0768953412771225,-0.07001461088657379,-0.06313388794660568,-0.05625316500663757,-0.049372442066669464,-0.042491719126701355,-0.035610996186733246,-0.028730269521474838,-0.02184954658150673,-0.014968822710216045,-0.008088098838925362,-0.0012073749676346779,0.005673334002494812,0.012554057873785496,0.01943478174507618,0.026315506547689438,0.03319622948765755,0.040076952427625656,0.046957679092884064,0.05383840203285217,0.06071912497282028,0.06759984791278839,0.0744805708527565,0.08136129379272461,0.08824202418327332,0.09512274712324142,0.10200347006320953,0.10888419300317764,0.11576491594314575,0.12264563888311386,0.12952636182308197,0.13640709221363068,0.1432878077030182,0.1501685380935669,0.1570492535829544,0.1639299839735031,0.17081069946289062,0.17769142985343933,0.18457216024398804,0.19145287573337555,0.19833360612392426,0.20521432161331177,0.21209505200386047,0.21897576749324799,0.2258564978837967],"_type":"histogram","values":[2,1,0,1,4,6,5,16,24,40,45,72,116,143,257,404,556,831,1250,1825,2782,4118,6044,9123,13571,25519,41771,46724,49148,50037,50123,49176,47320,43044,32000,15359,9608,7083,5097,3564,2441,1653,1127,737,484,347,224,156,96,90,45,22,20,17,9,3,4,0,2,0,0,0,0,2]},"kl_loss":34.38188057238489,"parameters/encoder.conv3.bias":{"values":[1,0,0,0,0,0,0,0,1,0,0,0,2,1,0,1,1,2,4,4,1,1,1,4,3,5,5,2,0,2,4,4,4,4,2,3,4,5,3,5,4,3,3,1,2,4,2,3,5,3,3,4,2,1,0,0,2,1,1,2,0,1,1,1],"bins":[-0.08861733227968216,-0.08657964318990707,-0.08454194664955139,-0.0825042575597763,-0.08046656847000122,-0.07842887938022614,-0.07639119029045105,-0.07435349375009537,-0.07231580466032028,-0.0702781155705452,-0.06824041903018951,-0.06620272994041443,-0.06416504085063934,-0.06212735176086426,-0.060089658945798874,-0.05805196613073349,-0.056014277040958405,-0.05397658795118332,-0.051938895136117935,-0.04990120232105255,-0.047863513231277466,-0.04582582414150238,-0.043788131326436996,-0.04175043851137161,-0.03971274942159653,-0.03767506033182144,-0.03563736751675606,-0.033599674701690674,-0.03156198561191559,-0.029524294659495354,-0.02748660370707512,-0.025448912754654884,-0.023411225527524948,-0.021373534575104713,-0.01933584362268448,-0.017298152670264244,-0.01526046171784401,-0.013222770765423775,-0.01118507981300354,-0.009147388860583305,-0.007109697908163071,-0.005072006955742836,-0.0030343160033226013,-0.0009966250509023666,0.001041065901517868,0.0030787568539381027,0.005116447806358337,0.007154138758778572,0.009191829711198807,0.011229520663619041,0.013267211616039276,0.01530490256845951,0.017342593520879745,0.01938028447329998,0.021417975425720215,0.02345566637814045,0.025493357330560684,0.02753104828298092,0.029568739235401154,0.03160642832517624,0.03364412114024162,0.03568181395530701,0.03771950304508209,0.03975719213485718,0.04179488494992256],"_type":"histogram"},"parameters/decoder.deconv4.bias":{"bins":[-0.08464136719703674,-0.08154299110174179,-0.07844461500644684,-0.07534624636173248,-0.07224787026643753,-0.06914949417114258,-0.06605111807584763,-0.06295274198055267,-0.05985436961054802,-0.05675599351525307,-0.05365762114524841,-0.05055924504995346,-0.04746086895465851,-0.044362496584653854,-0.0412641204893589,-0.03816574811935425,-0.035067372024059296,-0.03196899592876434,-0.02887062355875969,-0.025772247463464737,-0.022673873230814934,-0.01957549899816513,-0.016477122902870178,-0.013378748670220375,-0.010280374437570572,-0.007181999739259481,-0.004083625040948391,-0.0009852503426373005,0.00211312435567379,0.0052114990539848804,0.008309873752295971,0.011408248916268349,0.014506630599498749,0.017605004832148552,0.020703379064798355,0.023801755160093307,0.02690012939274311,0.029998503625392914,0.033096879720687866,0.03619525209069252,0.03929362818598747,0.042392004281282425,0.04549037665128708,0.04858875274658203,0.051687128841876984,0.05478550121188164,0.05788387730717659,0.060982249677181244,0.0640806257724762,0.06717900186777115,0.0702773779630661,0.07337574660778046,0.07647412270307541,0.07957249879837036,0.08267087489366531,0.08576925098896027,0.08886761963367462,0.09196599572896957,0.09506437182426453,0.09816274791955948,0.10126112401485443,0.10435950011014938,0.10745786875486374,0.11055624485015869,0.11365462094545364],"_type":"histogram","values":[1,1,0,0,0,0,0,0,1,0,1,0,0,0,0,2,0,0,1,0,0,0,1,2,0,3,1,1,0,0,1,2,0,1,0,3,1,0,0,0,0,1,1,0,0,0,1,0,0,0,0,1,0,0,1,2,0,0,0,0,0,1,0,1]},"parameters/encoder.fc.bias":{"values":[1,0,0,0,0,0,0,0,0,0,0,0,0,0,0,0,0,1,1,2,0,0,0,0,0,1,0,0,1,4,1,1,0,0,2,2,0,2,1,3,1,1,1,1,2,1,0,2,2,1,1,2,3,1,3,5,2,2,1,2,2,2,1,2],"bins":[-0.21524114906787872,-0.21132250130176544,-0.20740383863449097,-0.20348519086837769,-0.1995665431022644,-0.19564788043498993,-0.19172923266887665,-0.18781057000160217,-0.1838919222354889,-0.1799732744693756,-0.17605461180210114,-0.17213596403598785,-0.16821730136871338,-0.1642986536026001,-0.16038000583648682,-0.15646134316921234,-0.15254269540309906,-0.14862404763698578,-0.1447053849697113,-0.14078673720359802,-0.13686808943748474,-0.13294942677021027,-0.12903077900409698,-0.1251121163368225,-0.12119346857070923,-0.11727481335401535,-0.11335615813732147,-0.10943751037120819,-0.10551885515451431,-0.10160019993782043,-0.09768155217170715,-0.09376289695501328,-0.0898442268371582,-0.08592557907104492,-0.08200692385435104,-0.07808826863765717,-0.07416962087154388,-0.07025096565485,-0.06633231043815613,-0.06241365522146225,-0.05849500373005867,-0.05457635223865509,-0.05065769702196121,-0.046739041805267334,-0.042820390313863754,-0.038901738822460175,-0.034983083605766296,-0.031064430251717567,-0.02714577689766884,-0.02322712354362011,-0.01930847018957138,-0.015389816835522652,-0.011471163481473923,-0.007552510127425194,-0.003633856773376465,0.0002847965806722641,0.004203449934720993,0.008122103288769722,0.012040756642818451,0.01595940999686718,0.01987806335091591,0.023796716704964638,0.027715370059013367,0.031634025275707245,0.035552676767110825],"_type":"histogram"},"parameters/decoder.deconv4.weight":{"_type":"histogram","values":[1,0,0,1,0,0,0,1,0,5,2,7,6,6,10,20,28,37,42,46,89,159,198,287,492,793,1466,1980,2340,2701,2967,3219,3223,3087,2891,2391,1586,922,535,355,262,197,94,66,59,52,32,30,17,14,14,6,5,4,4,2,3,5,1,0,2,2,1,3],"bins":[-0.26628798246383667,-0.25798648595809937,-0.24968501925468445,-0.24138352274894714,-0.23308204114437103,-0.22478055953979492,-0.21647906303405762,-0.2081775814294815,-0.1998760998249054,-0.19157461822032928,-0.18327313661575317,-0.17497164011001587,-0.16667015850543976,-0.15836867690086365,-0.15006718039512634,-0.14176569879055023,-0.13346421718597412,-0.125162735581398,-0.1168612465262413,-0.1085597574710846,-0.10025827586650848,-0.09195679426193237,-0.08365530520677567,-0.07535381615161896,-0.06705233454704285,-0.05875084921717644,-0.05044936388731003,-0.04214787855744362,-0.03384639322757721,-0.0255449078977108,-0.01724342256784439,-0.008941937237977982,-0.00064048171043396,0.007661003619432449,0.01596248894929886,0.024263974279165268,0.03256545960903168,0.04086694493889809,0.049168430268764496,0.057469915598630905,0.06577140092849731,0.07407288253307343,0.08237437158823013,0.09067586064338684,0.09897734224796295,0.10727882385253906,0.11558031290769577,0.12388180196285248,0.1321832835674286,0.1404847651720047,0.1487862467765808,0.15708774328231812,0.16538922488689423,0.17369070649147034,0.18199220299720764,0.19029368460178375,0.19859516620635986,0.20689664781093597,0.21519812941551208,0.2234996259212494,0.2318011075258255,0.2401025891304016,0.24840408563613892,0.25670555233955383,0.26500704884529114]},"epoch":3,"parameters/encoder.conv3.weight":{"values":[1,0,1,0,1,0,1,1,3,1,3,5,5,6,11,16,28,31,55,64,92,132,223,314,601,1011,1685,2881,6349,10279,12415,13436,13577,13451,13507,12821,11577,7892,4227,1813,972,535,301,207,122,93,73,50,44,42,27,18,7,13,10,17,8,3,7,3,3,0,0,1],"bins":[-0.23384106159210205,-0.2269136607646942,-0.21998627483844757,-0.21305887401103973,-0.2061314880847931,-0.19920408725738525,-0.19227668642997742,-0.18534930050373077,-0.17842189967632294,-0.1714944988489151,-0.16456711292266846,-0.15763971209526062,-0.15071231126785278,-0.14378492534160614,-0.1368575245141983,-0.12993013858795166,-0.12300273776054382,-0.11607534438371658,-0.10914795100688934,-0.1022205501794815,-0.09529315680265427,-0.08836576342582703,-0.08143836259841919,-0.07451096922159195,-0.06758357584476471,-0.06065618246793747,-0.05372878536581993,-0.04680138826370239,-0.03987399488687515,-0.03294660151004791,-0.026019204407930374,-0.019091809168457985,-0.012164399027824402,-0.005237003788352013,0.0016903914511203766,0.008617786690592766,0.015545181930065155,0.022472577169537544,0.029399972409009933,0.03632736951112747,0.04325476288795471,0.05018215626478195,0.05710955336689949,0.06403695046901703,0.07096434384584427,0.07789173722267151,0.08481913805007935,0.09174653142690659,0.09867392480373383,0.10560131818056107,0.1125287115573883,0.11945611238479614,0.12638351321220398,0.13331089913845062,0.14023829996585846,0.1471656858921051,0.15409308671951294,0.16102048754692078,0.16794787347316742,0.17487527430057526,0.1818026602268219,0.18873006105422974,0.19565746188163757,0.20258484780788422,0.20951224863529205],"_type":"histogram"},"parameters/flows.0.w":{"values":[1,0,0,0,0,0,1,1,0,0,0,0,0,0,2,1,0,2,0,1,0,1,0,0,2,0,1,1,0,0,1,1,1,0,1,0,1,0,1,0,1,0,1,0,1,0,1,0,1,2,0,1,0,0,0,1,0,0,0,1,0,1,0,1],"bins":[-1.1529128551483154,-1.1142994165420532,-1.075685977935791,-1.0370725393295288,-0.9984590411186218,-0.9598456025123596,-0.9212321639060974,-0.8826187252998352,-0.8440052270889282,-0.805391788482666,-0.7667783498764038,-0.7281649112701416,-0.6895514726638794,-0.6509380340576172,-0.6123245358467102,-0.573711097240448,-0.5350976586341858,-0.4964842200279236,-0.457870751619339,-0.4192573130130768,-0.3806438446044922,-0.34203040599823,-0.3034169673919678,-0.2648034989833832,-0.22619006037712097,-0.18757660686969757,-0.14896315336227417,-0.11034971475601196,-0.07173626124858856,-0.03312281146645546,0.005490638315677643,0.044104088097810745,0.08271753787994385,0.12133099138736725,0.15994444489479065,0.19855788350105286,0.23717133700847626,0.27578479051589966,0.31439822912216187,0.35301169753074646,0.39162513613700867,0.4302385747432709,0.46885204315185547,0.5074654817581177,0.5460789203643799,0.5846923589706421,0.6233058571815491,0.6619192957878113,0.7005327343940735,0.7391461730003357,0.7777596116065979,0.8163731098175049,0.8549865484237671,0.8935999870300293,0.9322134256362915,0.9708268642425537,1.009440302848816,1.0480537414550781,1.0866671800613403,1.125280737876892,1.1638941764831543,1.2025076150894165,1.2411210536956787,1.279734492301941,1.3183479309082031],"_type":"histogram"},"parameters/decoder.deconv1.bias":{"_type":"histogram","values":[1,0,0,1,0,1,0,1,2,0,1,3,3,3,2,3,2,4,3,6,5,4,2,4,5,11,13,5,7,4,10,4,8,8,9,4,9,12,3,10,12,6,5,9,5,4,6,6,2,7,5,4,2,2,1,1,2,0,0,1,0,1,1,1],"bins":[-0.10358846187591553,-0.10101878643035889,-0.09844911098480225,-0.09587942808866501,-0.09330975264310837,-0.09074007719755173,-0.08817039430141449,-0.08560071885585785,-0.08303104341030121,-0.08046136796474457,-0.07789169251918793,-0.07532200962305069,-0.07275233417749405,-0.07018265873193741,-0.06761297583580017,-0.06504330039024353,-0.06247362494468689,-0.05990394949913025,-0.05733427032828331,-0.05476459115743637,-0.05219491571187973,-0.04962524026632309,-0.04705556109547615,-0.04448588192462921,-0.04191620647907257,-0.03934653103351593,-0.03677685186266899,-0.03420717269182205,-0.03163749724626541,-0.02906781993806362,-0.02649814262986183,-0.023928465321660042,-0.02135879173874855,-0.01878911443054676,-0.01621943712234497,-0.01364975981414318,-0.011080082505941391,-0.008510405197739601,-0.005940727889537811,-0.0033710505813360214,-0.0008013732731342316,0.0017683040350675583,0.004337981343269348,0.006907658651471138,0.009477335959672928,0.012047013267874718,0.014616690576076508,0.017186367884278297,0.019756045192480087,0.022325722500681877,0.024895399808883667,0.027465077117085457,0.030034754425287247,0.032604433596134186,0.035174109041690826,0.03774378448724747,0.040313463658094406,0.042883142828941345,0.045452818274497986,0.048022493720054626,0.050592172890901566,0.053161852061748505,0.055731527507305145,0.058301202952861786,0.060870882123708725]},"parameters/decoder.deconv3.bias":{"_type":"histogram","values":[3,0,0,1,0,0,1,0,0,1,0,2,0,0,1,1,2,0,1,1,2,1,0,2,3,1,1,2,2,5,4,0,5,0,1,3,1,2,2,1,2,0,2,1,0,0,0,2,0,1,1,0,0,1,0,0,0,1,0,0,0,0,0,1],"bins":[-0.09486189484596252,-0.09164631366729736,-0.0884307324886322,-0.08521515130996704,-0.08199957013130188,-0.07878398895263672,-0.07556840777397156,-0.0723528265953064,-0.06913724541664124,-0.06592166423797607,-0.06270608305931091,-0.05949050188064575,-0.05627492070198059,-0.05305933952331543,-0.04984375834465027,-0.04662817716598511,-0.043412595987319946,-0.040197014808654785,-0.036981433629989624,-0.03376585245132446,-0.030550271272659302,-0.02733469009399414,-0.02411910891532898,-0.02090352773666382,-0.017687946557998657,-0.014472365379333496,-0.011256784200668335,-0.008041203022003174,-0.004825621843338013,-0.0016100406646728516,0.0016055405139923096,0.004821121692657471,0.008036702871322632,0.011252284049987793,0.014467865228652954,0.017683446407318115,0.020899027585983276,0.024114608764648438,0.0273301899433136,0.03054577112197876,0.03376135230064392,0.03697693347930908,0.04019251465797424,0.043408095836639404,0.046623677015304565,0.04983925819396973,0.05305483937263489,0.05627042055130005,0.05948600172996521,0.06270158290863037,0.06591716408729553,0.0691327452659607,0.07234832644462585,0.07556390762329102,0.07877948880195618,0.08199506998062134,0.0852106511592865,0.08842623233795166,0.09164181351661682,0.09485739469528198,0.09807297587394714,0.1012885570526123,0.10450413823127747,0.10771971940994263,0.11093530058860779]},"parameters/flows.1.w":{"bins":[-1.2782936096191406,-1.231959581375122,-1.185625672340393,-1.1392916440963745,-1.0929577350616455,-1.046623706817627,-1.000289797782898,-0.9539557695388794,-0.9076218008995056,-0.8612878322601318,-0.8149538636207581,-0.7686198949813843,-0.7222858667373657,-0.6759518980979919,-0.6296179294586182,-0.5832839608192444,-0.5369499921798706,-0.4906160235404968,-0.44428205490112305,-0.3979480564594269,-0.3516140878200531,-0.3052801191806793,-0.25894612073898315,-0.21261215209960938,-0.1662781834602356,-0.11994420737028122,-0.07361023128032684,-0.027276255190372467,0.01905772089958191,0.06539169698953629,0.11172567307949066,0.15805965662002563,0.20439350605010986,0.25072747468948364,0.2970614433288574,0.3433954417705536,0.38972941040992737,0.43606337904930115,0.4823973774909973,0.5287313461303711,0.5750653147697449,0.6213992834091187,0.6677332520484924,0.7140672206878662,0.7604012489318848,0.8067352175712585,0.8530691862106323,0.8994031548500061,0.9457371234893799,0.9920710921287537,1.0384050607681274,1.084739089012146,1.131072998046875,1.1774070262908936,1.2237409353256226,1.2700749635696411,1.3164088726043701,1.3627429008483887,1.4090769290924072,1.4554108381271362,1.5017448663711548,1.5480787754058838,1.5944128036499023,1.6407467126846313,1.68708074092865],"_type":"histogram","values":[1,0,0,1,0,0,1,1,0,0,0,0,2,0,0,1,1,0,3,1,1,1,0,2,0,0,0,2,1,1,1,1,1,0,0,1,0,0,0,0,3,0,2,0,0,0,0,0,0,0,0,0,0,0,0,0,0,0,1,1,0,0,0,1]},"parameters/flows.0.u":{"values":[1,0,0,0,1,0,1,0,0,0,0,1,0,1,0,2,0,0,0,0,1,1,0,2,0,1,1,0,0,1,1,1,0,1,0,1,1,0,0,1,1,1,0,0,1,0,1,0,1,1,1,1,0,1,0,0,0,0,0,0,2,0,0,1],"bins":[-2.11781907081604,-2.0563652515411377,-1.9949113130569458,-1.933457374572754,-1.8720035552978516,-1.8105497360229492,-1.7490957975387573,-1.6876418590545654,-1.626188039779663,-1.5647342205047607,-1.5032802820205688,-1.441826343536377,-1.3803725242614746,-1.3189187049865723,-1.2574647665023804,-1.1960108280181885,-1.1345570087432861,-1.0731031894683838,-1.011649250984192,-0.9501953721046448,-0.8887414932250977,-0.8272876143455505,-0.7658337354660034,-0.7043798565864563,-0.6429259777069092,-0.5814720988273621,-0.5200182199478149,-0.4585643410682678,-0.3971104621887207,-0.3356565833091736,-0.27420270442962646,-0.21274882555007935,-0.15129494667053223,-0.08984106779098511,-0.02838718891143799,0.03306668996810913,0.09452056884765625,0.15597444772720337,0.2174283266067505,0.2788822054862976,0.3403360843658447,0.40178996324539185,0.46324384212493896,0.5246977210044861,0.5861515998840332,0.6476054787635803,0.7090593576431274,0.7705132365226746,0.8319671154022217,0.8934209942817688,0.9548748731613159,1.0163288116455078,1.0777826309204102,1.1392364501953125,1.2006903886795044,1.2621443271636963,1.3235981464385986,1.385051965713501,1.4465059041976929,1.5079598426818848,1.569413661956787,1.6308674812316895,1.6923214197158813,1.7537753582000732,1.8152291774749756],"_type":"histogram"},"reconstructions":{"_type":"images/separated","width":32,"height":32,"format":"png","count":16,"filenames":["media/images/reconstructions_5_1101ee5b2619fd021f04.png","media/images/reconstructions_5_d98a710b071c752e4767.png","media/images/reconstructions_5_0d3deaa4932d3605e9db.png","media/images/reconstructions_5_bdae029a77a0bfa2d45b.png","media/images/reconstructions_5_6408d85d6caebe9cdec7.png","media/images/reconstructions_5_faeea17cdb623626242e.png","media/images/reconstructions_5_8bee006c008742066d33.png","media/images/reconstructions_5_5508d933cc5d19a04b0e.png","media/images/reconstructions_5_e89eb4826e20f45e181f.png","media/images/reconstructions_5_eb480697e2872bd4f945.png","media/images/reconstructions_5_9dee1b5c1c9f254f6a74.png","media/images/reconstructions_5_a9ca138314599ae4b2f8.png","media/images/reconstructions_5_98c38646af890ec08e25.png","media/images/reconstructions_5_8ff206429456cc427139.png","media/images/reconstructions_5_7a08fc8d9bd65f6a7e18.png","media/images/reconstructions_5_0617923f93d99c24878a.png"]},"_runtime":115.665264331,"parameters/encoder.conv1.weight":{"_type":"histogram","values":[1,0,0,4,3,3,4,11,18,20,18,34,27,28,24,28,38,21,31,27,22,32,36,38,34,41,39,39,31,21,22,32,34,31,24,29,28,33,27,38,25,36,38,39,37,33,34,30,24,24,35,27,29,31,33,22,20,14,16,5,5,4,1,3],"bins":[-0.19147786498069763,-0.18569211661815643,-0.17990636825561523,-0.17412063479423523,-0.16833488643169403,-0.16254913806915283,-0.15676340460777283,-0.15097765624523163,-0.14519190788269043,-0.13940615952014923,-0.13362041115760803,-0.12783467769622803,-0.12204892933368683,-0.11626318097114563,-0.11047744005918503,-0.10469169914722443,-0.09890595078468323,-0.09312020242214203,-0.08733446151018143,-0.08154872059822083,-0.07576297223567963,-0.06997722387313843,-0.06419148296117783,-0.058405738323926926,-0.052619993686676025,-0.046834249049425125,-0.041048504412174225,-0.035262759774923325,-0.029477015137672424,-0.023691270500421524,-0.017905525863170624,-0.012119781225919724,-0.006334036588668823,-0.000548291951417923,0.005237452685832977,0.011023197323083878,0.016808941960334778,0.022594686597585678,0.02838043123483658,0.03416617587208748,0.03995192050933838,0.04573766514658928,0.05152340978384018,0.05730915442109108,0.06309489905834198,0.06888064742088318,0.07466638833284378,0.08045212924480438,0.08623787760734558,0.09202362596988678,0.09780936688184738,0.10359510779380798,0.10938085615634918,0.11516660451889038,0.12095234543085098,0.12673808634281158,0.13252383470535278,0.13830958306789398,0.14409533143043518,0.14988106489181519,0.15566681325435638,0.16145256161689758,0.1672382950782776,0.1730240434408188,0.17880979180335999]},"parameters/decoder.deconv2.bias":{"_type":"histogram","values":[1,0,1,0,0,1,1,0,0,1,0,2,0,0,0,1,1,2,0,4,5,2,3,3,5,4,6,5,4,4,4,3,9,6,5,4,5,3,0,3,4,2,4,3,4,2,2,0,0,0,1,0,3,0,0,1,0,1,0,1,0,0,0,2],"bins":[-0.15389961004257202,-0.1501239389181137,-0.1463482528924942,-0.1425725817680359,-0.13879691064357758,-0.13502122461795807,-0.13124555349349976,-0.12746988236904144,-0.12369419634342194,-0.11991852521896362,-0.11614284664392471,-0.1123671680688858,-0.10859149694442749,-0.10481581836938858,-0.10104013979434967,-0.09726446866989136,-0.09348879009485245,-0.08971311151981354,-0.08593744039535522,-0.08216176182031631,-0.0783860832452774,-0.07461041212081909,-0.07083473354578018,-0.06705905497074127,-0.06328338384628296,-0.05950770527124405,-0.05573202669620514,-0.05195635184645653,-0.048180676996707916,-0.044404998421669006,-0.040629323571920395,-0.036853644996881485,-0.033077970147132874,-0.029302293434739113,-0.025526616722345352,-0.02175094187259674,-0.01797526516020298,-0.01419958844780922,-0.010423912666738033,-0.00664823642000556,-0.0028725601732730865,0.0009031160734593868,0.00467879232019186,0.008454468101263046,0.012230144813656807,0.016005821526050568,0.01978149637579918,0.02355717308819294,0.0273328498005867,0.03110852651298046,0.03488420322537422,0.03865987807512283,0.04243555665016174,0.046211231499910355,0.049986906349658966,0.053762584924697876,0.05753825977444649,0.0613139346241951,0.06508961319923401,0.06886529177427292,0.07264096289873123,0.07641664147377014,0.08019232004880905,0.08396799117326736,0.08774366974830627]},"parameters/decoder.fc.weight":{"_type":"histogram","values":[2,1,8,16,26,39,63,80,151,211,284,395,572,771,1038,1492,1902,2455,3143,3717,4186,4471,4811,5016,5283,5139,5183,5334,5244,5308,5247,5056,5314,5207,5086,5094,5207,5159,5007,4943,4941,4593,4052,3711,3053,2505,1916,1445,1042,788,542,363,261,199,139,93,71,40,23,11,3,0,3,1],"bins":[-0.3842160105705261,-0.37204232811927795,-0.3598686158657074,-0.34769493341445923,-0.33552122116088867,-0.3233475387096405,-0.31117382645606995,-0.2990001440048218,-0.2868264317512512,-0.27465274930000305,-0.2624790668487549,-0.2503053545951843,-0.23813167214393616,-0.2259579747915268,-0.21378427743911743,-0.20161058008670807,-0.1894368827342987,-0.17726318538188934,-0.16508948802947998,-0.15291579067707062,-0.14074209332466125,-0.12856841087341309,-0.11639471352100372,-0.10422101616859436,-0.092047318816185,-0.07987362146377563,-0.06769992411136627,-0.055526234209537506,-0.04335253685712814,-0.03117884136736393,-0.019005145877599716,-0.006831450387835503,0.005342215299606323,0.017515910789370537,0.02968960627913475,0.041863299906253815,0.05403699725866318,0.06621069461107254,0.0783843845129013,0.09055808186531067,0.10273177921772003,0.1149054765701294,0.12707917392253876,0.13925287127494812,0.1514265537261963,0.16360025107860565,0.17577394843101501,0.18794764578342438,0.20012134313583374,0.2122950404882431,0.22446873784065247,0.23664243519306183,0.2488161325454712,0.26098981499671936,0.2731635272502899,0.2853372097015381,0.29751092195510864,0.3096846044063568,0.321858286857605,0.33403199911117554,0.3462056815624237,0.35837939381599426,0.37055307626724243,0.382726788520813,0.39490047097206116]},"parameters/encoder.conv5.weight":{"values":[1,1,2,1,0,1,5,3,7,14,15,22,37,50,77,121,173,279,458,870,1550,3014,5162,14025,38864,54784,58600,59687,59945,59343,57468,53262,34389,12149,3903,2159,1327,726,529,344,241,141,124,94,83,47,43,33,27,13,18,17,11,3,8,1,4,2,2,4,3,0,1,1],"bins":[-0.21324428915977478,-0.20586898922920227,-0.19849370419979095,-0.19111840426921844,-0.18374310433864594,-0.17636780440807343,-0.1689925193786621,-0.1616172194480896,-0.1542419195175171,-0.14686663448810577,-0.13949133455753326,-0.13211603462696075,-0.12474074214696884,-0.11736544221639633,-0.10999014973640442,-0.10261484980583191,-0.09523955732584,-0.08786426484584808,-0.08048896491527557,-0.07311367243528366,-0.06573837250471115,-0.05836308002471924,-0.05098778381943703,-0.043612487614154816,-0.036237191408872604,-0.028861895203590393,-0.021486598998308182,-0.01411130465567112,-0.006736008450388908,0.0006392872892320156,0.00801458302885294,0.015389878302812576,0.022765174508094788,0.030140470713377,0.03751576691865921,0.04489106312394142,0.05226635932922363,0.059641651809215546,0.06701695173978806,0.07439224421977997,0.08176754415035248,0.08914283663034439,0.0965181291103363,0.10389342904090881,0.11126872152090073,0.11864402145147324,0.12601931393146515,0.13339461386203766,0.14076989889144897,0.14814519882202148,0.155520498752594,0.1628957986831665,0.17027108371257782,0.17764638364315033,0.18502168357372284,0.19239698350429535,0.19977226853370667,0.20714756846427917,0.21452286839485168,0.221898153424263,0.2292734533548355,0.23664875328540802,0.24402405321598053,0.25139933824539185,0.25877463817596436],"_type":"histogram"},"parameters/flows.1.u":{"_type":"histogram","values":[2,0,0,0,0,0,1,0,0,0,0,0,0,2,0,0,0,0,1,0,1,1,0,1,0,2,1,0,0,0,0,0,0,0,1,2,1,1,2,0,3,0,2,0,2,0,0,0,0,1,0,0,2,0,0,0,1,0,0,0,0,0,1,1],"bins":[-2.048565626144409,-1.9908621311187744,-1.9331586360931396,-1.8754551410675049,-1.8177515268325806,-1.7600480318069458,-1.702344536781311,-1.6446410417556763,-1.5869375467300415,-1.5292340517044067,-1.4715304374694824,-1.4138269424438477,-1.356123447418213,-1.2984199523925781,-1.2407164573669434,-1.1830129623413086,-1.1253094673156738,-1.0676058530807495,-1.0099023580551147,-0.95219886302948,-0.8944953680038452,-0.8367918133735657,-0.7790883183479309,-0.7213848233222961,-0.6636812686920166,-0.6059777736663818,-0.5482742786407471,-0.4905707538127899,-0.43286722898483276,-0.375163733959198,-0.31746020913124084,-0.2597567141056061,-0.20205318927764893,-0.14434967935085297,-0.08664616197347641,-0.028942648321390152,0.028760865330696106,0.08646437525749207,0.14416790008544922,0.20187141001224518,0.25957491993904114,0.3172784447669983,0.37498193979263306,0.4326854646205902,0.49038898944854736,0.5480924844741821,0.6057959794998169,0.6634995341300964,0.7212030291557312,0.778906524181366,0.8366100788116455,0.8943135738372803,0.952017068862915,1.0097205638885498,1.0674240589141846,1.1251276731491089,1.1828311681747437,1.2405346632003784,1.2982381582260132,1.355941653251648,1.4136451482772827,1.471348762512207,1.5290522575378418,1.5867557525634766,1.6444592475891113]},"parameters/flows.3.u":{"bins":[-1.9396183490753174,-1.8861650228500366,-1.8327118158340454,-1.7792584896087646,-1.7258051633834839,-1.6723519563674927,-1.618898630142212,-1.5654453039169312,-1.5119919776916504,-1.4585387706756592,-1.4050854444503784,-1.3516321182250977,-1.2981789112091064,-1.2447255849838257,-1.191272258758545,-1.1378190517425537,-1.084365725517273,-1.0309123992919922,-0.9774591326713562,-0.9240058660507202,-0.8705525398254395,-0.8170992732048035,-0.7636460065841675,-0.7101926803588867,-0.6567394137382507,-0.6032861471176147,-0.549832820892334,-0.496379554271698,-0.4429262578487396,-0.38947296142578125,-0.33601969480514526,-0.2825663983821869,-0.22911298274993896,-0.1756596863269806,-0.12220640480518341,-0.06875311583280563,-0.015299826860427856,0.03815346211194992,0.0916067510843277,0.14506003260612488,0.19851332902908325,0.2519666254520416,0.305419921875,0.358873188495636,0.41232648491859436,0.46577978134155273,0.5192330479621887,0.5726863741874695,0.6261396408081055,0.6795929074287415,0.7330462336540222,0.7864995002746582,0.839952826499939,0.893406093120575,0.9468593597412109,1.0003126859664917,1.0537660121917725,1.1072192192077637,1.1606725454330444,1.2141258716583252,1.2675790786743164,1.3210324048995972,1.374485731124878,1.4279389381408691,1.48139226436615],"_type":"histogram","values":[1,0,0,0,0,0,0,0,0,0,0,0,1,1,0,1,0,0,0,0,1,0,2,0,2,0,1,1,1,0,2,0,1,1,0,2,1,2,0,0,1,3,1,1,1,0,0,1,0,0,0,0,0,1,1,0,0,0,0,0,0,0,0,1]},"parameters/flows.2.u":{"values":[1,0,0,0,1,0,0,0,0,1,2,0,0,0,0,1,0,0,0,1,0,2,0,0,1,0,2,0,0,0,0,1,0,1,1,1,2,1,0,2,2,1,2,0,1,0,0,1,0,0,0,1,0,1,0,0,1,0,0,0,0,0,0,1],"bins":[-2.1881513595581055,-2.120349168777466,-2.052546977996826,-1.984744906425476,-1.9169427156448364,-1.8491405248641968,-1.7813383340835571,-1.7135361433029175,-1.6457340717315674,-1.5779318809509277,-1.510129690170288,-1.4423274993896484,-1.3745253086090088,-1.3067231178283691,-1.238921046257019,-1.1711188554763794,-1.1033166646957397,-1.0355144739151,-0.9677123427391052,-0.8999101519584656,-0.8321080207824707,-0.764305830001831,-0.6965036392211914,-0.6287015080451965,-0.5608993172645569,-0.4930971562862396,-0.42529499530792236,-0.3574928045272827,-0.28969064354896545,-0.2218884825706482,-0.15408630669116974,-0.08628413826227188,-0.018481969833374023,0.049320198595523834,0.11712236702442169,0.18492454290390015,0.2527267038822174,0.32052886486053467,0.3883310556411743,0.4561332166194916,0.5239353775978088,0.5917375683784485,0.6595396995544434,0.727341890335083,0.7951440811157227,0.8629462122917175,0.9307484030723572,0.998550534248352,1.0663527250289917,1.1341549158096313,1.201957106590271,1.269759178161621,1.3375613689422607,1.4053635597229004,1.47316575050354,1.5409679412841797,1.6087701320648193,1.6765722036361694,1.744374394416809,1.8121765851974487,1.8799787759780884,1.947780966758728,2.015583038330078,2.0833852291107178,2.1511874198913574],"_type":"histogram"},"parameters/flows.1.b":{"_type":"histogram","values":[1],"bins":[-1.262234091758728,-1.262234091758728]},"parameters/decoder.deconv2.weight":{"values":[1,0,1,1,0,0,3,6,4,8,8,24,22,25,43,62,76,125,155,225,297,400,492,770,1054,1420,1927,2633,3721,6116,7815,8871,9236,9476,9417,9480,9245,8924,8605,8091,7501,5655,3227,1899,1196,820,601,395,302,198,130,97,95,70,31,28,17,5,10,7,3,2,2,2],"bins":[-0.253017783164978,-0.2460319995880127,-0.23904621601104736,-0.23206043243408203,-0.2250746488571167,-0.21808888018131256,-0.21110309660434723,-0.2041173130273819,-0.19713152945041656,-0.19014574587345123,-0.1831599622964859,-0.17617417871952057,-0.16918841004371643,-0.1622026264667511,-0.15521684288978577,-0.14823105931282043,-0.1412452757358551,-0.13425949215888977,-0.12727370858192444,-0.1202879324555397,-0.11330214887857437,-0.10631636530160904,-0.0993305891752243,-0.09234480559825897,-0.08535902202129364,-0.07837323844432831,-0.07138745486736298,-0.06440167874097824,-0.05741589516401291,-0.05043011158704758,-0.04344433173537254,-0.03645855188369751,-0.02947278320789337,-0.02248700149357319,-0.015501219779253006,-0.008515438064932823,-0.0015296563506126404,0.005456125363707542,0.012441907078027725,0.019427688792347908,0.02641347050666809,0.03339925408363342,0.040385033935308456,0.04737081378698349,0.05435659736394882,0.061342380940914154,0.06832815706729889,0.07531394064426422,0.08229972422122955,0.08928550779819489,0.09627129137516022,0.10325706750154495,0.11024285107851028,0.11722863465547562,0.12421441078186035,0.13120019435882568,0.13818597793579102,0.14517176151275635,0.15215754508972168,0.159143328666687,0.16612911224365234,0.17311488091945648,0.18010066449642181,0.18708644807338715,0.19407223165035248],"_type":"histogram"},"parameters/decoder.fc.bias":{"_type":"histogram","values":[1,0,1,0,0,0,1,2,2,4,2,13,4,18,34,43,53,55,78,84,115,115,126,97,106,132,103,145,134,123,133,129,135,123,131,99,127,138,111,117,128,119,115,139,127,126,117,116,120,110,108,88,83,64,52,40,37,32,16,20,6,6,3,2],"bins":[-0.3735252618789673,-0.36361145973205566,-0.35369768738746643,-0.3437838852405548,-0.3338701128959656,-0.32395631074905396,-0.31404250860214233,-0.3041287362575531,-0.2942149341106415,-0.28430113196372986,-0.2743873596191406,-0.264473557472229,-0.2545597553253174,-0.24464598298072815,-0.23473218083381653,-0.2248183935880661,-0.21490460634231567,-0.20499081909656525,-0.19507703185081482,-0.1851632297039032,-0.17524944245815277,-0.16533565521240234,-0.15542185306549072,-0.1455080658197403,-0.13559427857398987,-0.12568049132823944,-0.11576669663190842,-0.10585290193557739,-0.09593911468982697,-0.08602532744407654,-0.07611153274774551,-0.06619773805141449,-0.056283921003341675,-0.04637013003230095,-0.03645633906126022,-0.026542548090219498,-0.016628757119178772,-0.006714966148138046,0.0031988248229026794,0.013112615793943405,0.02302640676498413,0.03294019773602486,0.04285398870706558,0.05276777967810631,0.06268157064914703,0.07259535789489746,0.08250915259122849,0.09242294728755951,0.10233673453330994,0.11225052177906036,0.12216431647539139,0.1320781111717224,0.14199189841747284,0.15190568566322327,0.1618194878101349,0.17173327505588531,0.18164706230163574,0.19156084954738617,0.2014746367931366,0.21138843894004822,0.22130222618579865,0.23121601343154907,0.2411298155784607,0.2510435879230499,0.26095739006996155]},"_timestamp":1.758018709373403e+09,"parameters/encoder.conv5.bias":{"_type":"histogram","values":[1,0,0,0,0,0,0,0,1,0,1,4,8,8,7,18,21,36,39,34,37,31,25,42,31,32,39,26,17,6,3,3,4,4,3,3,0,3,3,1,1,2,1,5,1,1,2,1,1,0,1,0,0,1,0,1,0,0,1,0,0,0,0,2],"bins":[-0.1188434585928917,-0.11384008079767227,-0.10883670300245285,-0.10383332520723343,-0.0988299548625946,-0.09382657706737518,-0.08882319927215576,-0.08381982147693634,-0.07881644368171692,-0.0738130658864975,-0.06880968809127808,-0.06380631029605865,-0.05880293622612953,-0.05379955843091011,-0.04879618436098099,-0.043792806565761566,-0.038789428770542145,-0.03378605097532272,-0.02878267504274845,-0.02377929911017418,-0.018775921314954758,-0.013772544451057911,-0.008769167587161064,-0.0037657907232642174,0.0012375861406326294,0.006240963004529476,0.011244339868426323,0.016247715801000595,0.021251093596220016,0.026254471391439438,0.03125784546136856,0.03626122325658798,0.04126459360122681,0.04626797139644623,0.05127134919166565,0.05627472326159477,0.061278101056814194,0.06628147512674332,0.07128485292196274,0.07628823071718216,0.08129160851240158,0.086294986307621,0.09129836410284042,0.09630174189805984,0.10130511224269867,0.10630849003791809,0.11131186783313751,0.11631524562835693,0.12131862342357635,0.12632200121879578,0.1313253790140152,0.13632875680923462,0.14133213460445404,0.14633551239967346,0.15133889019489288,0.1563422679901123,0.16134563088417053,0.16634900867938995,0.17135238647460938,0.1763557642698288,0.18135914206504822,0.18636251986026764,0.19136589765548706,0.19636927545070648,0.2013726532459259]},"total_loss":250.60111443404955,"recon_loss":216.21923430069634,"parameters/decoder.deconv3.weight":{"_type":"histogram","values":[5,2,3,7,6,15,22,24,46,56,122,176,233,359,526,739,1132,1536,2313,3528,5182,8136,10617,12077,13219,13612,13276,12141,10172,6983,4734,3276,2259,1562,975,629,387,303,218,127,90,63,52,36,22,19,13,12,5,5,4,2,2,4,2,3,0,0,1,0,0,1,0,1],"bins":[-0.21475864946842194,-0.20654098689556122,-0.1983233094215393,-0.1901056468486786,-0.18188798427581787,-0.17367032170295715,-0.16545265913009644,-0.15723498165607452,-0.1490173190832138,-0.1407996565103531,-0.13258197903633118,-0.12436431646347046,-0.11614665389060974,-0.10792899131774902,-0.09971132129430771,-0.0914936512708664,-0.08327598869800568,-0.07505832612514496,-0.06684065610170364,-0.05862298980355263,-0.05040532350540161,-0.042187657207250595,-0.03396999090909958,-0.025752324610948563,-0.017534658312797546,-0.00931699201464653,-0.001099325716495514,0.007118340581655502,0.015336006879806519,0.023553673177957535,0.03177133947610855,0.03998900577425957,0.04820665717124939,0.056424323469400406,0.06464198976755142,0.07285965979099274,0.08107732236385345,0.08929498493671417,0.09751265496015549,0.1057303249835968,0.11394798755645752,0.12216565012931824,0.13038331270217896,0.13860099017620087,0.14681865274906158,0.1550363153219223,0.1632539927959442,0.17147165536880493,0.17968931794166565,0.18790698051452637,0.19612464308738708,0.204342320561409,0.21255998313426971,0.22077764570713043,0.22899532318115234,0.23721298575401306,0.24543064832687378,0.2536483108997345,0.2618659734725952,0.27008363604545593,0.27830129861831665,0.28651899099349976,0.2947366535663605,0.3029543161392212,0.3111719787120819]},"parameters/encoder.conv2.weight":{"values":[1,0,0,0,0,2,6,4,3,3,6,8,9,10,7,14,12,14,20,35,27,39,44,75,62,69,112,139,163,258,365,543,925,1490,1905,2229,2297,2411,2455,2440,2449,2380,2270,2128,1873,1374,829,493,306,164,106,61,43,34,15,17,9,1,4,3,4,1,0,2],"bins":[-0.27823904156684875,-0.2713371813297272,-0.2644352912902832,-0.2575334310531616,-0.25063154101371765,-0.24372966587543488,-0.2368277907371521,-0.22992591559886932,-0.22302404046058655,-0.21612218022346497,-0.2092203050851822,-0.20231842994689941,-0.19541655480861664,-0.18851467967033386,-0.1816128045320511,-0.1747109293937683,-0.16780905425548553,-0.16090717911720276,-0.15400530397891998,-0.1471034288406372,-0.14020155370235443,-0.13329967856407166,-0.12639780342578888,-0.1194959357380867,-0.11259406059980392,-0.10569218546152115,-0.09879031032323837,-0.0918884351849556,-0.08498656749725342,-0.07808469235897064,-0.07118281722068787,-0.06428094208240509,-0.05737908184528351,-0.05047720670700073,-0.04357533156871796,-0.03667346015572548,-0.029771585017442703,-0.022869709879159927,-0.0159678366035223,-0.0090659623965621,-0.002164088189601898,0.004737786017358303,0.011639660224318504,0.01854153349995613,0.025443408638238907,0.03234528377652168,0.03924715518951416,0.046149030327796936,0.05305090546607971,0.05995278060436249,0.06685465574264526,0.07375653088092804,0.08065840601921082,0.087560273706913,0.09446214884519577,0.10136402398347855,0.10826589912176132,0.1151677742600441,0.12206964939832687,0.12897151708602905,0.13587339222431183,0.1427752673625946,0.14967714250087738,0.15657901763916016,0.16348089277744293],"_type":"histogram"}}